"{"levels":[{"inputs":[0,0,0,0,0,0.1011986016733396]
,"outputs":[1,0,0,0,0,0]
,"biases":[-0.24453129515318794,0.45849052448099936,0.6206617554902119,0.21525762819414318,0.6499267889182736,0.10158891020448646],
"weights":[[-0.3354979751266778,0.12380620113232155,-0.9231028975876776,-0.8940271030882627,-0.8772282489163601,0.09152210649527603],[0.7911959600375251,0.9128369336430016,0.24153365145554195,-0.048768501741432324,-0.5757322745432267,0.8704182215966658],[-0.4918397439880171,-0.033087054612636724,0.8029296063425639,0.5002654465400278,0.36647070213176747,0.38606950598022083],[-0.22141898035352314,0.5681233652653366,-0.34776497592627464,-0.22144151442745752,0.6407091346099447,0.1792574295131515],[-0.3009028159465301,-0.4689615848888775,0.34081117911652914,-0.35350686809898857,0.4667225506931083,0.691652106083481],[0.862961900653862,0.18578806633916356,-0.3981291756780254,-0.28673660614857477,-0.06467142515250268,-0.014951390320064206]]},
{"inputs":[1,0,0,0,0,0],
"outputs":[0,1,1,1],
"biases":[0.11429416949772797,-0.10447077616753342,0.08866178183497997,-0.2687776941994162],
"weights":[[-0.1921691360503277,0.0010367429579218879,0.37879403608840123,0.8077830888537081],[-0.09966823071947362,-0.7208603100082382,0.8785106250722117,-0.6636388369212227],[0.8714077965880649,-0.6604404599005673,-0.7251496540164335,-0.6865904030667247],[-0.49232905005606353,-0.914601949942317,0.5293387266154395,0.030467818291866067],[-0.8820184923346637,-0.2716346217528125,-0.3830194204637394,-0.2724277238477706],[-0.4120444426297367,0.7540295039332943,0.5203138921141233,-0.6074335796855785]]}]}"